{
  "input_nodes": [
    {
      "bias": -123.96809,
      "value": 0.0
    },
    {
      "bias": -44.7609,
      "value": 0.0
    }
  ],
  "hidden_nodes": [
    [
      {
        "bias": 18.063541,
        "value": 0.0,
        "weights": [
          -4.749382,
          0.42625737
        ]
      },
      {
        "bias": 47.647858,
        "value": 0.0,
        "weights": [
          -2.5427,
          -4.4716372
        ]
      },
      {
        "bias": -22.699455,
        "value": 0.0,
        "weights": [
          2.0659747,
          -2.3661573
        ]
      },
      {
        "bias": 10.637083,
        "value": 0.0,
        "weights": [
          0.007013373,
          2.8157732
        ]
      },
      {
        "bias": 70.388016,
        "value": 0.0,
        "weights": [
          1.954225,
          2.4159331
        ]
      },
      {
        "bias": 12.303702,
        "value": 0.0,
        "weights": [
          -1.0525769,
          4.049525
        ]
      },
      {
        "bias": -3.2031438,
        "value": 0.0,
        "weights": [
          -1.366651,
          -4.529171
        ]
      },
      {
        "bias": 58.673225,
        "value": 0.0,
        "weights": [
          -1.2461406,
          -1.1002011
        ]
      },
      {
        "bias": 23.737455,
        "value": 0.0,
        "weights": [
          -2.3879066,
          -1.8497916
        ]
      },
      {
        "bias": -65.10378,
        "value": 0.0,
        "weights": [
          -4.3667684,
          -1.9091471
        ]
      }
    ],
    [
      {
        "bias": 57.62542,
        "value": 0.0,
        "weights": [
          -2.237324,
          4.969212,
          0.84080637,
          3.2551227,
          3.4921432,
          3.275252,
          -0.25733095,
          -1.2771386,
          -0.28062218,
          1.4186624
        ]
      },
      {
        "bias": 43.47468,
        "value": 0.0,
        "weights": [
          -1.3724946,
          2.8467693,
          2.7011886,
          2.6852288,
          0.40862083,
          -3.902463,
          1.4353609,
          -1.2352569,
          -2.2128553,
          1.9850649
        ]
      },
      {
        "bias": 28.264595,
        "value": 0.0,
        "weights": [
          -4.4699492,
          -1.7211461,
          -1.0560904,
          -0.27715868,
          -1.4358693,
          4.256286,
          4.1270266,
          7.956028,
          5.643059,
          2.5271194
        ]
      },
      {
        "bias": -41.475266,
        "value": 0.0,
        "weights": [
          -0.487334,
          -0.98811966,
          -0.91713184,
          -0.35725084,
          2.3870587,
          -1.9531757,
          4.8168483,
          0.73962295,
          7.6686406,
          2.2051234
        ]
      },
      {
        "bias": -45.968662,
        "value": 0.0,
        "weights": [
          -2.7640383,
          0.17379782,
          2.5692697,
          -2.2732892,
          -1.2819617,
          1.3480248,
          -2.353671,
          3.655975,
          6.1393714,
          1.7447816
        ]
      },
      {
        "bias": 55.25704,
        "value": 0.0,
        "weights": [
          -3.0511036,
          -2.394258,
          5.9633703,
          2.232005,
          0.904608,
          0.7647273,
          -2.5506175,
          -1.207735,
          -7.7925,
          1.4411571
        ]
      },
      {
        "bias": -9.0743685,
        "value": 0.0,
        "weights": [
          -2.4896698,
          -1.7809107,
          -1.8971894,
          -4.0772047,
          -3.9787607,
          -6.6039195,
          -1.2203196,
          -3.4468188,
          0.64992344,
          0.9291871
        ]
      },
      {
        "bias": -26.85258,
        "value": 0.0,
        "weights": [
          -7.9823165,
          -6.966949,
          3.9183276,
          -2.4648528,
          -1.3811613,
          2.749038,
          -0.7026299,
          0.3253247,
          4.7020316,
          -1.5436436
        ]
      },
      {
        "bias": 3.97349,
        "value": 0.0,
        "weights": [
          1.1660011,
          0.24466369,
          1.9680448,
          -6.4835606,
          -2.7396545,
          -0.9405984,
          3.4083505,
          1.7852985,
          -1.9963374,
          3.183074
        ]
      },
      {
        "bias": -23.85152,
        "value": 0.0,
        "weights": [
          -0.13216567,
          2.7131188,
          0.25780562,
          1.7069604,
          3.405697,
          -4.208064,
          -0.39947847,
          -1.7261544,
          -2.0046291,
          -1.2727551
        ]
      }
    ],
    [
      {
        "bias": -37.7252,
        "value": 0.0,
        "weights": [
          2.8473356,
          -3.233723,
          -3.0879056,
          2.1384792,
          -0.3535449,
          -5.4294844,
          0.37192282,
          -4.412377,
          -2.3750212,
          2.656743
        ]
      },
      {
        "bias": 16.10283,
        "value": 0.0,
        "weights": [
          -10.228681,
          -3.2709785,
          1.493412,
          4.6584244,
          -6.6711984,
          -5.1876273,
          3.2715018,
          5.7409883,
          -1.2181907,
          1.6692318
        ]
      },
      {
        "bias": -13.474768,
        "value": 0.0,
        "weights": [
          1.3127111,
          0.09587384,
          0.8361969,
          3.9469137,
          -0.6635379,
          0.32484394,
          5.520106,
          -4.5507383,
          -3.8175027,
          4.859984
        ]
      },
      {
        "bias": 48.851654,
        "value": 0.0,
        "weights": [
          4.797014,
          -3.5139878,
          -1.663458,
          4.747736,
          0.40950787,
          -0.52654994,
          -0.41203466,
          -3.4880426,
          -8.455837,
          -4.3433075
        ]
      },
      {
        "bias": 39.967358,
        "value": 0.0,
        "weights": [
          3.0385942,
          0.0006738156,
          -2.4739132,
          -1.6148502,
          0.30180198,
          1.2122982,
          -2.6697261,
          3.2280912,
          -1.4040623,
          3.1396296
        ]
      },
      {
        "bias": -34.65738,
        "value": 0.0,
        "weights": [
          -0.8441649,
          9.421721,
          -4.993174,
          -2.6296742,
          1.2029518,
          -3.5931978,
          1.2926419,
          -3.3890176,
          2.2115552,
          -3.502598
        ]
      },
      {
        "bias": -7.7193336,
        "value": 0.0,
        "weights": [
          4.2501464,
          -1.212884,
          5.4857707,
          -0.12249825,
          1.8194858,
          -2.588169,
          -1.0184261,
          -0.43395567,
          2.3010385,
          9.5102415
        ]
      },
      {
        "bias": -26.141779,
        "value": 0.0,
        "weights": [
          0.5141442,
          -1.2798133,
          -0.47640887,
          -0.34487316,
          1.8931825,
          4.246347,
          -1.6375195,
          0.6102029,
          -2.8644683,
          -1.5515754
        ]
      },
      {
        "bias": 37.83457,
        "value": 0.0,
        "weights": [
          1.3710372,
          -0.4618094,
          -4.8922844,
          -0.4276251,
          -6.126671,
          3.3241718,
          2.7011938,
          4.7038527,
          -4.0932655,
          -1.0143244
        ]
      },
      {
        "bias": -26.482405,
        "value": 0.0,
        "weights": [
          0.09174692,
          4.7234817,
          -6.852171,
          0.74741155,
          -1.6941558,
          -5.619359,
          -6.4488907,
          3.6405103,
          -3.7074049,
          6.0657983
        ]
      }
    ],
    [
      {
        "bias": 15.857613,
        "value": 0.0,
        "weights": [
          5.151063,
          0.583339,
          3.2746136,
          1.7275131,
          2.0538154,
          -3.3834338,
          2.5880854,
          1.5823488,
          1.5515432,
          -0.60710365
        ]
      },
      {
        "bias": 7.810811,
        "value": 0.0,
        "weights": [
          2.1959639,
          -2.253803,
          4.350673,
          4.5344505,
          4.545151,
          3.8469934,
          -1.3542533,
          -0.7815258,
          -2.6891913,
          -1.3839356
        ]
      },
      {
        "bias": -51.667854,
        "value": 0.0,
        "weights": [
          -5.7553034,
          -0.15634948,
          -0.31165373,
          3.2486963,
          -3.0242236,
          -3.56655,
          3.6286123,
          1.2991275,
          0.5024319,
          4.7826004
        ]
      },
      {
        "bias": -21.060266,
        "value": 0.0,
        "weights": [
          -2.3226128,
          2.1082423,
          0.61291707,
          2.6115375,
          -8.107161,
          1.6056315,
          0.4448677,
          0.73934513,
          0.93163025,
          -6.7882986
        ]
      },
      {
        "bias": 11.55036,
        "value": 0.0,
        "weights": [
          2.1646237,
          -1.4321164,
          -2.3026283,
          7.3197513,
          -0.34245357,
          -0.9930235,
          -0.34043273,
          3.6682014,
          4.730682,
          1.1531216
        ]
      },
      {
        "bias": 1.2498658,
        "value": 0.0,
        "weights": [
          -0.4364111,
          -1.7528365,
          0.91753864,
          -5.9355288,
          -2.4095628,
          -6.6294446,
          -7.7865815,
          3.7684052,
          -1.1700325,
          6.693311
        ]
      },
      {
        "bias": 39.972504,
        "value": 0.0,
        "weights": [
          0.5479822,
          -2.2573953,
          -0.24289384,
          -1.7148767,
          0.21983701,
          -1.6296394,
          1.0381405,
          -5.9858003,
          0.12863773,
          5.4056306
        ]
      },
      {
        "bias": 17.863684,
        "value": 0.0,
        "weights": [
          -0.5285144,
          1.1002524,
          -1.5720842,
          1.9386456,
          1.9943982,
          4.583555,
          -0.8774971,
          2.0713,
          -2.2001588,
          0.61268526
        ]
      },
      {
        "bias": 0.6212895,
        "value": 0.0,
        "weights": [
          0.13419816,
          -3.13648,
          -1.0412222,
          -4.049674,
          -0.73315203,
          -0.04456964,
          -3.7854292,
          -0.49996978,
          -0.07173746,
          -0.35215938
        ]
      },
      {
        "bias": 16.197594,
        "value": 0.0,
        "weights": [
          -1.278922,
          6.828556,
          0.92805225,
          4.6292706,
          -2.243,
          0.36957598,
          -6.7714477,
          2.6708086,
          3.9953058,
          -1.1896161
        ]
      }
    ]
  ],
  "output_nodes": [
    {
      "bias": 14.376801,
      "value": 0.0,
      "weights": [
        -3.3961248,
        5.781822,
        2.5628345,
        2.6086056,
        4.872489,
        1.8288268,
        1.0867989,
        -1.7938464,
        -2.5042076,
        3.917106
      ]
    },
    {
      "bias": 1.9574363,
      "value": 0.0,
      "weights": [
        0.2783572,
        1.4997001,
        -1.2150569,
        -2.4980056,
        -3.5157025,
        1.3775679,
        -6.3469076,
        -0.5757318,
        -1.0332382,
        -6.3199167
      ]
    }
  ]
}