{
  "input_nodes": [
    {
      "bias": -134.30762,
      "value": 0.0
    },
    {
      "bias": -73.05692,
      "value": 0.0
    }
  ],
  "hidden_nodes": [
    [
      {
        "bias": 28.822762,
        "value": 0.0,
        "weights": [
          -7.842593,
          1.6555004
        ]
      },
      {
        "bias": 35.81611,
        "value": 0.0,
        "weights": [
          -3.1815958,
          -4.424205
        ]
      },
      {
        "bias": -19.71019,
        "value": 0.0,
        "weights": [
          2.5615118,
          -3.5158372
        ]
      },
      {
        "bias": 17.775686,
        "value": 0.0,
        "weights": [
          1.0642048,
          3.2737186
        ]
      },
      {
        "bias": 68.3312,
        "value": 0.0,
        "weights": [
          2.3483875,
          4.4834676
        ]
      },
      {
        "bias": 3.5828598,
        "value": 0.0,
        "weights": [
          -1.0448081,
          0.6925552
        ]
      },
      {
        "bias": 1.0822868,
        "value": 0.0,
        "weights": [
          -1.8766447,
          -3.4143739
        ]
      },
      {
        "bias": 63.204468,
        "value": 0.0,
        "weights": [
          -1.9635003,
          -1.3686556
        ]
      },
      {
        "bias": 14.093785,
        "value": 0.0,
        "weights": [
          -3.3557239,
          -0.9650808
        ]
      },
      {
        "bias": -57.679802,
        "value": 0.0,
        "weights": [
          -4.3031044,
          -4.185541
        ]
      }
    ],
    [
      {
        "bias": 69.50615,
        "value": 0.0,
        "weights": [
          -2.15412,
          6.9923396,
          3.040314,
          1.7780104,
          3.4745188,
          2.756837,
          -1.5561259,
          -0.9507381,
          -1.1197113,
          0.19973375
        ]
      },
      {
        "bias": 42.09817,
        "value": 0.0,
        "weights": [
          -1.1772628,
          2.591804,
          1.7153015,
          2.491487,
          1.3097647,
          -5.521525,
          3.0607529,
          -1.3649671,
          -6.81231,
          2.386692
        ]
      },
      {
        "bias": 43.069607,
        "value": 0.0,
        "weights": [
          -5.4191456,
          -1.4176869,
          -1.1014452,
          -1.7536383,
          -1.1064476,
          5.145446,
          2.837904,
          7.4194875,
          3.4559982,
          2.3273475
        ]
      },
      {
        "bias": -33.370434,
        "value": 0.0,
        "weights": [
          -1.214347,
          -1.5501571,
          -0.011389762,
          -1.0247334,
          0.44580972,
          -1.4621937,
          3.6739805,
          1.8537738,
          7.5996437,
          2.7923079
        ]
      },
      {
        "bias": -60.563553,
        "value": 0.0,
        "weights": [
          -2.5111098,
          -0.16234691,
          3.0294986,
          -2.324279,
          0.14102355,
          1.3705745,
          -3.3739126,
          2.337129,
          6.242485,
          2.9477963
        ]
      },
      {
        "bias": 45.639717,
        "value": 0.0,
        "weights": [
          -2.1386054,
          -2.3832827,
          6.770557,
          2.0798445,
          0.7219272,
          0.7206873,
          -4.0561967,
          -1.5238323,
          -6.4727573,
          0.17302993
        ]
      },
      {
        "bias": -7.7639894,
        "value": 0.0,
        "weights": [
          -1.8002056,
          -1.9193679,
          -0.7734709,
          -5.0883684,
          -4.853064,
          -6.071109,
          -1.9688942,
          -1.8800584,
          1.9382974,
          1.5756313
        ]
      },
      {
        "bias": -53.900665,
        "value": 0.0,
        "weights": [
          -9.823339,
          -6.1468844,
          3.5749085,
          -4.079003,
          -2.1190143,
          2.0310173,
          -1.0624243,
          0.8071994,
          4.6777225,
          -1.1467886
        ]
      },
      {
        "bias": 27.10022,
        "value": 0.0,
        "weights": [
          0.8842469,
          -0.12406069,
          1.5411911,
          -7.3250155,
          -2.5331178,
          -0.1115358,
          2.306194,
          2.5459123,
          -0.3183784,
          3.4599886
        ]
      },
      {
        "bias": -13.233415,
        "value": 0.0,
        "weights": [
          -0.40029183,
          4.49625,
          -1.8404651,
          2.237533,
          3.7333295,
          -4.5202055,
          -0.7050112,
          -0.9940684,
          0.9600623,
          -3.444151
        ]
      }
    ],
    [
      {
        "bias": -37.19849,
        "value": 0.0,
        "weights": [
          3.5277627,
          -2.5583053,
          -3.0420094,
          4.949151,
          0.021397583,
          -5.914499,
          -1.3339026,
          -3.7147646,
          -2.0738664,
          1.1770309
        ]
      },
      {
        "bias": -11.285061,
        "value": 0.0,
        "weights": [
          -8.99976,
          -3.5507724,
          0.4295196,
          6.9939957,
          -8.588733,
          -4.943694,
          3.7469351,
          5.6649947,
          -1.1621318,
          3.251161
        ]
      },
      {
        "bias": -22.330063,
        "value": 0.0,
        "weights": [
          -0.41632426,
          -0.5660047,
          0.69928765,
          4.68433,
          -1.0996968,
          1.7317973,
          6.0651774,
          -4.847335,
          -4.8574953,
          3.6301112
        ]
      },
      {
        "bias": 53.693794,
        "value": 0.0,
        "weights": [
          7.40677,
          -3.3400176,
          -1.1452297,
          5.9570894,
          2.4865453,
          -0.29529005,
          -1.8586283,
          -5.0621,
          -7.687375,
          -3.2316766
        ]
      },
      {
        "bias": 40.31433,
        "value": 0.0,
        "weights": [
          2.735005,
          0.091892965,
          -2.8706453,
          -1.9947304,
          0.07422074,
          0.7792772,
          -2.5011122,
          3.3669114,
          -1.0927186,
          2.8825314
        ]
      },
      {
        "bias": -23.34708,
        "value": 0.0,
        "weights": [
          -0.52319837,
          7.4909115,
          -4.051341,
          -2.0350213,
          0.6326099,
          -3.8706458,
          2.2478194,
          -2.3143134,
          0.9813975,
          -3.6698875
        ]
      },
      {
        "bias": -4.1613235,
        "value": 0.0,
        "weights": [
          4.434386,
          0.10369095,
          7.609498,
          0.52175796,
          3.4834423,
          -1.7989038,
          -1.0044147,
          0.84682095,
          -0.33238825,
          8.922534
        ]
      },
      {
        "bias": -43.996937,
        "value": 0.0,
        "weights": [
          -0.5381945,
          -2.13824,
          -0.31327116,
          0.051678732,
          1.4981469,
          2.772694,
          -2.6928148,
          0.7755911,
          -2.7428892,
          -2.9428272
        ]
      },
      {
        "bias": 19.154074,
        "value": 0.0,
        "weights": [
          3.424296,
          0.16081136,
          -5.9173255,
          0.89638895,
          -5.7087855,
          2.0438957,
          3.4896064,
          4.9974456,
          -5.859131,
          -0.5574349
        ]
      },
      {
        "bias": -16.085941,
        "value": 0.0,
        "weights": [
          -0.27671325,
          4.408274,
          -5.4016314,
          -1.094222,
          -1.6460081,
          -5.1317186,
          -6.1170635,
          1.762905,
          -2.6160474,
          4.020447
        ]
      }
    ],
    [
      {
        "bias": 6.5782228,
        "value": 0.0,
        "weights": [
          5.0674825,
          0.94501257,
          5.1256104,
          2.384355,
          3.4869993,
          -6.6648083,
          2.1137044,
          -0.24473454,
          -0.9377438,
          -2.1318629
        ]
      },
      {
        "bias": 0.5635884,
        "value": 0.0,
        "weights": [
          2.3019423,
          -2.6631696,
          6.1717234,
          5.504516,
          7.427684,
          4.9228945,
          -2.325547,
          -1.6067199,
          -3.3381233,
          -0.4204602
        ]
      },
      {
        "bias": -44.26129,
        "value": 0.0,
        "weights": [
          -5.789085,
          -0.5075392,
          0.1931651,
          6.702401,
          -4.017792,
          -3.4464924,
          0.8869809,
          0.7460135,
          0.68432456,
          4.759411
        ]
      },
      {
        "bias": -14.587751,
        "value": 0.0,
        "weights": [
          -0.3304699,
          0.51828355,
          -1.1194894,
          1.0473428,
          -8.126105,
          2.325065,
          2.4041367,
          0.48227602,
          0.76165396,
          -5.689784
        ]
      },
      {
        "bias": 5.40484,
        "value": 0.0,
        "weights": [
          1.8826274,
          -1.7221591,
          -0.74959314,
          9.459807,
          -0.49940604,
          -1.3924196,
          -0.66720337,
          4.158391,
          3.3159866,
          -0.23274387
        ]
      },
      {
        "bias": -21.74009,
        "value": 0.0,
        "weights": [
          -1.4332699,
          -3.1349938,
          -0.2858239,
          -8.1245775,
          -0.4976074,
          -6.080716,
          -7.6446238,
          4.4184813,
          -1.8411187,
          7.74853
        ]
      },
      {
        "bias": 55.744728,
        "value": 0.0,
        "weights": [
          -0.20299217,
          -3.3844283,
          1.649881,
          -1.7243117,
          0.58432496,
          -0.36245966,
          -0.036041364,
          -4.0102296,
          1.7978001,
          4.411294
        ]
      },
      {
        "bias": 11.077798,
        "value": 0.0,
        "weights": [
          -0.608643,
          -0.8285931,
          -1.4338459,
          3.272173,
          1.8546641,
          4.656768,
          -0.784453,
          0.78317165,
          -3.132396,
          0.70950305
        ]
      },
      {
        "bias": 4.245125,
        "value": 0.0,
        "weights": [
          1.0289452,
          -4.4869823,
          -2.4086673,
          -4.730651,
          -1.7595774,
          -1.6412592,
          -3.6781406,
          3.5950935,
          -1.0167148,
          -1.9609803
        ]
      },
      {
        "bias": 2.7490509,
        "value": 0.0,
        "weights": [
          -2.0812118,
          6.1640463,
          1.300039,
          6.19995,
          -0.8281223,
          0.043584503,
          -5.9560432,
          1.1094387,
          3.6654894,
          -1.6737616
        ]
      }
    ]
  ],
  "output_nodes": [
    {
      "bias": 11.96778,
      "value": 0.0,
      "weights": [
        -3.072697,
        5.388488,
        2.5616212,
        3.8238776,
        4.241651,
        1.4590284,
        3.0671299,
        -2.1217341,
        -2.3155706,
        4.550345
      ]
    },
    {
      "bias": 6.471115,
      "value": 0.0,
      "weights": [
        1.0327604,
        1.695959,
        -1.0885005,
        -1.2982968,
        -6.0283594,
        1.4744055,
        -6.5008116,
        1.0642917,
        -0.77738005,
        -5.509596
      ]
    }
  ]
}