{
  "input_nodes": [
    {
      "bias": -140.9327,
      "value": 0.0
    },
    {
      "bias": -72.20544,
      "value": 0.0
    }
  ],
  "hidden_nodes": [
    [
      {
        "bias": 27.814106,
        "value": 0.0,
        "weights": [
          -7.861816,
          1.2512538
        ]
      },
      {
        "bias": 35.499477,
        "value": 0.0,
        "weights": [
          -3.3365207,
          -4.61111
        ]
      },
      {
        "bias": -23.540207,
        "value": 0.0,
        "weights": [
          2.3950424,
          -3.670035
        ]
      },
      {
        "bias": 16.771996,
        "value": 0.0,
        "weights": [
          1.0897874,
          3.5594938
        ]
      },
      {
        "bias": 70.82564,
        "value": 0.0,
        "weights": [
          2.8591278,
          4.506852
        ]
      },
      {
        "bias": 2.4783108,
        "value": 0.0,
        "weights": [
          -1.0325806,
          1.0185742
        ]
      },
      {
        "bias": 1.3741524,
        "value": 0.0,
        "weights": [
          -1.8315892,
          -3.426148
        ]
      },
      {
        "bias": 63.88736,
        "value": 0.0,
        "weights": [
          -2.2120461,
          -1.4793198
        ]
      },
      {
        "bias": 16.723307,
        "value": 0.0,
        "weights": [
          -3.3273096,
          -0.5369789
        ]
      },
      {
        "bias": -56.85146,
        "value": 0.0,
        "weights": [
          -4.0817056,
          -4.5123234
        ]
      }
    ],
    [
      {
        "bias": 72.15702,
        "value": 0.0,
        "weights": [
          -2.230539,
          6.9068027,
          2.9904814,
          1.7624223,
          3.4175856,
          2.7003787,
          -1.3320396,
          -1.3174577,
          -0.8307304,
          0.0897676
        ]
      },
      {
        "bias": 40.288345,
        "value": 0.0,
        "weights": [
          -1.3635921,
          2.7230096,
          1.7232109,
          2.1863167,
          1.264526,
          -5.646633,
          3.131961,
          -1.2572451,
          -6.4941163,
          2.4233775
        ]
      },
      {
        "bias": 41.283676,
        "value": 0.0,
        "weights": [
          -5.5232577,
          -1.4770687,
          -1.1791859,
          -2.1084547,
          -1.107265,
          5.159115,
          2.9725633,
          7.497443,
          3.5612414,
          2.311306
        ]
      },
      {
        "bias": -33.78675,
        "value": 0.0,
        "weights": [
          -0.9276496,
          -1.5419466,
          -0.13507253,
          -0.7532348,
          0.31499603,
          -1.3264977,
          3.6944323,
          1.8180583,
          7.8462243,
          2.64367
        ]
      },
      {
        "bias": -62.45676,
        "value": 0.0,
        "weights": [
          -2.5032704,
          0.15805033,
          3.284045,
          -2.2971008,
          0.10961634,
          1.4896685,
          -3.3548708,
          2.5330935,
          6.4639635,
          3.1235662
        ]
      },
      {
        "bias": 46.123943,
        "value": 0.0,
        "weights": [
          -2.1846757,
          -2.4589555,
          6.8784094,
          2.3352826,
          0.6806868,
          0.78210115,
          -4.0248647,
          -1.7260556,
          -6.535516,
          0.11745976
        ]
      },
      {
        "bias": -7.6898546,
        "value": 0.0,
        "weights": [
          -1.7207837,
          -2.0254033,
          -0.8972453,
          -4.8975215,
          -4.9466543,
          -6.355102,
          -2.0069094,
          -1.6987697,
          2.0561595,
          1.4494913
        ]
      },
      {
        "bias": -52.761494,
        "value": 0.0,
        "weights": [
          -9.624233,
          -6.4239187,
          3.6450546,
          -4.3259144,
          -2.2274392,
          2.0099072,
          -0.9673267,
          0.6810634,
          4.5323577,
          -1.5029465
        ]
      },
      {
        "bias": 22.645197,
        "value": 0.0,
        "weights": [
          1.1182574,
          -0.08610385,
          1.5924381,
          -7.4575577,
          -2.633986,
          0.0062748343,
          2.3525767,
          2.7022567,
          -0.29111755,
          3.6875687
        ]
      },
      {
        "bias": -11.983421,
        "value": 0.0,
        "weights": [
          -0.34728497,
          4.1353154,
          -1.9868447,
          2.5748923,
          3.5306735,
          -4.3145285,
          -0.60230875,
          -0.8163267,
          0.641496,
          -3.262699
        ]
      }
    ],
    [
      {
        "bias": -37.31528,
        "value": 0.0,
        "weights": [
          3.59307,
          -2.6758258,
          -2.8128185,
          4.8509755,
          -0.15086272,
          -5.72858,
          -1.3164091,
          -3.98839,
          -1.8235768,
          1.3188109
        ]
      },
      {
        "bias": -11.662708,
        "value": 0.0,
        "weights": [
          -8.786407,
          -3.3530962,
          0.1432359,
          6.687334,
          -8.505778,
          -4.9929113,
          3.9579558,
          5.499401,
          -1.285733,
          2.915431
        ]
      },
      {
        "bias": -17.76426,
        "value": 0.0,
        "weights": [
          -0.45443043,
          -0.86092836,
          1.0004623,
          4.489946,
          -0.9807787,
          1.7146758,
          5.8513665,
          -4.81954,
          -4.8777485,
          3.637671
        ]
      },
      {
        "bias": 49.373123,
        "value": 0.0,
        "weights": [
          7.009642,
          -3.5713067,
          -1.0850638,
          6.1475587,
          2.347926,
          -0.40449542,
          -1.4635006,
          -5.2064767,
          -7.615528,
          -3.4067492
        ]
      },
      {
        "bias": 37.686455,
        "value": 0.0,
        "weights": [
          2.8205874,
          0.17250127,
          -2.8954544,
          -1.9962126,
          -0.21812715,
          0.7080059,
          -2.1367118,
          3.5523021,
          -0.89104897,
          3.2295158
        ]
      },
      {
        "bias": -26.57534,
        "value": 0.0,
        "weights": [
          -0.27938634,
          7.6471014,
          -4.2316427,
          -2.0121458,
          0.63631135,
          -3.9746094,
          2.1003428,
          -2.478081,
          0.80340177,
          -3.8239439
        ]
      },
      {
        "bias": -1.8440509,
        "value": 0.0,
        "weights": [
          4.6522784,
          0.43966734,
          6.9819655,
          0.32863262,
          3.3603625,
          -1.8107754,
          -1.129672,
          0.51821584,
          -0.16591233,
          8.897877
        ]
      },
      {
        "bias": -43.86913,
        "value": 0.0,
        "weights": [
          -0.60945475,
          -1.990275,
          -0.5625351,
          0.08062557,
          1.6397874,
          3.001523,
          -2.8846292,
          0.8361977,
          -2.8974342,
          -2.812183
        ]
      },
      {
        "bias": 16.65197,
        "value": 0.0,
        "weights": [
          3.4386282,
          0.24772146,
          -5.7294593,
          1.0317279,
          -5.921303,
          1.8291374,
          3.560864,
          4.868458,
          -5.7513638,
          -0.6937797
        ]
      },
      {
        "bias": -16.52066,
        "value": 0.0,
        "weights": [
          -0.322257,
          4.2094193,
          -5.208524,
          -1.0835418,
          -1.8447284,
          -4.9447594,
          -6.1754074,
          1.9384289,
          -2.2731214,
          3.8495998
        ]
      }
    ],
    [
      {
        "bias": 8.442188,
        "value": 0.0,
        "weights": [
          5.258837,
          1.1773534,
          5.1127334,
          2.3603039,
          3.362112,
          -6.463623,
          2.143944,
          -0.25291964,
          -0.7269405,
          -1.9577129
        ]
      },
      {
        "bias": -1.2253208,
        "value": 0.0,
        "weights": [
          2.3005705,
          -2.5130801,
          6.5488276,
          5.5367002,
          7.2164264,
          4.9265413,
          -2.3917682,
          -1.6503147,
          -3.1695716,
          -0.63321346
        ]
      },
      {
        "bias": -48.273933,
        "value": 0.0,
        "weights": [
          -6.0578976,
          -0.24863514,
          0.43053755,
          6.907535,
          -4.0791106,
          -3.198087,
          1.2295195,
          0.8583764,
          0.743252,
          4.807021
        ]
      },
      {
        "bias": -10.555195,
        "value": 0.0,
        "weights": [
          -0.096508615,
          0.4962186,
          -1.2559717,
          1.075351,
          -7.9266996,
          2.4704456,
          2.5884461,
          0.6300993,
          0.70257264,
          -5.5348263
        ]
      },
      {
        "bias": 6.2940826,
        "value": 0.0,
        "weights": [
          2.1067576,
          -1.7928815,
          -0.8148664,
          9.569605,
          -0.4910537,
          -1.5285579,
          -0.87843573,
          4.333942,
          3.6389878,
          -0.00064348057
        ]
      },
      {
        "bias": -18.492355,
        "value": 0.0,
        "weights": [
          -1.6079404,
          -3.2621467,
          -0.46723047,
          -8.148175,
          -0.48220336,
          -5.884676,
          -7.7270794,
          4.564567,
          -1.6864945,
          7.762899
        ]
      },
      {
        "bias": 55.48343,
        "value": 0.0,
        "weights": [
          -0.3163585,
          -3.4891934,
          1.4441494,
          -1.412898,
          0.80656683,
          -0.25089714,
          -0.16661313,
          -3.6625888,
          1.823995,
          4.2141314
        ]
      },
      {
        "bias": 10.458275,
        "value": 0.0,
        "weights": [
          -0.49072057,
          -0.978336,
          -1.3249198,
          3.2862372,
          2.0437348,
          4.8148966,
          -0.42529672,
          0.8645529,
          -3.3929856,
          0.8144679
        ]
      },
      {
        "bias": 2.5734677,
        "value": 0.0,
        "weights": [
          1.0911344,
          -4.404544,
          -2.0677178,
          -4.6846433,
          -1.7326505,
          -1.5254128,
          -3.8264627,
          3.366787,
          -1.2762512,
          -1.7473118
        ]
      },
      {
        "bias": 3.4819405,
        "value": 0.0,
        "weights": [
          -2.3083131,
          6.081698,
          1.4769582,
          6.3355737,
          -0.5961063,
          -0.45859367,
          -6.0850673,
          1.0592784,
          3.6056497,
          -1.7906705
        ]
      }
    ]
  ],
  "output_nodes": [
    {
      "bias": 10.903879,
      "value": 0.0,
      "weights": [
        -2.9569328,
        5.5744233,
        2.6677814,
        3.5288424,
        4.2602468,
        1.5538255,
        2.866097,
        -2.0769157,
        -2.5503564,
        4.275308
      ]
    },
    {
      "bias": 5.931918,
      "value": 0.0,
      "weights": [
        0.74976194,
        1.6134015,
        -0.98904073,
        -1.3846183,
        -5.8812046,
        1.4322641,
        -6.5697327,
        0.9968537,
        -0.41354713,
        -5.573218
      ]
    }
  ]
}