{
  "input_nodes": [
    {
      "bias": -132.87071,
      "value": 0.0
    },
    {
      "bias": -70.44917,
      "value": 0.0
    }
  ],
  "hidden_nodes": [
    [
      {
        "bias": 29.428547,
        "value": 0.0,
        "weights": [
          -7.466917,
          1.639362
        ]
      },
      {
        "bias": 42.580173,
        "value": 0.0,
        "weights": [
          -2.4393857,
          -4.2753735
        ]
      },
      {
        "bias": -19.148537,
        "value": 0.0,
        "weights": [
          2.324194,
          -2.9901364
        ]
      },
      {
        "bias": 19.885357,
        "value": 0.0,
        "weights": [
          0.9729935,
          3.1766827
        ]
      },
      {
        "bias": 65.6556,
        "value": 0.0,
        "weights": [
          2.528117,
          4.1480246
        ]
      },
      {
        "bias": 4.8522243,
        "value": 0.0,
        "weights": [
          -1.2674572,
          0.19900826
        ]
      },
      {
        "bias": 9.106109,
        "value": 0.0,
        "weights": [
          -1.073965,
          -2.906435
        ]
      },
      {
        "bias": 63.314266,
        "value": 0.0,
        "weights": [
          -2.0755303,
          -1.2668821
        ]
      },
      {
        "bias": 14.844567,
        "value": 0.0,
        "weights": [
          -2.4878328,
          -0.7172075
        ]
      },
      {
        "bias": -63.04006,
        "value": 0.0,
        "weights": [
          -5.0586395,
          -4.1197047
        ]
      }
    ],
    [
      {
        "bias": 67.18146,
        "value": 0.0,
        "weights": [
          -2.5195055,
          6.671486,
          2.7498832,
          2.0433083,
          3.707952,
          2.6912868,
          -2.1842988,
          -2.0782397,
          -0.5131536,
          0.8672001
        ]
      },
      {
        "bias": 42.98305,
        "value": 0.0,
        "weights": [
          -1.0482237,
          3.0474632,
          1.7135005,
          2.1001694,
          1.2065884,
          -5.439426,
          3.1900349,
          -2.3185954,
          -6.6159334,
          2.807849
        ]
      },
      {
        "bias": 45.70925,
        "value": 0.0,
        "weights": [
          -5.972515,
          -1.5047083,
          -0.61187214,
          -1.6828568,
          -0.84367317,
          5.061307,
          2.8701975,
          8.023028,
          2.4564447,
          2.3872957
        ]
      },
      {
        "bias": -23.770931,
        "value": 0.0,
        "weights": [
          -1.0208781,
          -2.0716174,
          0.088349946,
          -1.3340926,
          1.1141194,
          -1.5826256,
          3.2234519,
          2.1977732,
          7.9403286,
          2.6405222
        ]
      },
      {
        "bias": -57.84528,
        "value": 0.0,
        "weights": [
          -1.7889576,
          0.141494,
          2.598842,
          -2.7339444,
          -0.33713517,
          0.9017148,
          -3.0545616,
          2.3177238,
          6.4273047,
          3.2121122
        ]
      },
      {
        "bias": 39.81383,
        "value": 0.0,
        "weights": [
          -2.0722332,
          -2.813205,
          7.1886387,
          2.464366,
          0.20612735,
          1.2680362,
          -4.0831976,
          -0.9324954,
          -6.444215,
          -0.80862087
        ]
      },
      {
        "bias": -4.991829,
        "value": 0.0,
        "weights": [
          -0.63713735,
          -1.1941694,
          -1.0199646,
          -5.1015224,
          -5.272468,
          -6.669982,
          -2.5936043,
          -1.9149649,
          1.7151458,
          0.7756642
        ]
      },
      {
        "bias": -59.833595,
        "value": 0.0,
        "weights": [
          -9.724019,
          -5.772349,
          3.1455421,
          -4.1378045,
          -1.6057543,
          1.4785028,
          -0.6569375,
          1.3339537,
          4.5495877,
          -0.46755648
        ]
      },
      {
        "bias": 29.501228,
        "value": 0.0,
        "weights": [
          1.2608426,
          0.04977587,
          1.0589203,
          -7.041324,
          -2.5630994,
          -0.085293956,
          2.7932544,
          1.5010432,
          -0.16214266,
          2.417569
        ]
      },
      {
        "bias": -12.640629,
        "value": 0.0,
        "weights": [
          -1.2601495,
          3.9603996,
          -2.2431502,
          2.0877905,
          4.2247744,
          -4.1570563,
          -0.88698834,
          -1.2148213,
          1.215589,
          -3.1226783
        ]
      }
    ],
    [
      {
        "bias": -38.63287,
        "value": 0.0,
        "weights": [
          3.4983377,
          -2.3064158,
          -2.2723086,
          3.82171,
          -0.7667935,
          -6.8599496,
          -1.111064,
          -3.1684253,
          -1.837146,
          1.5251591
        ]
      },
      {
        "bias": -13.182528,
        "value": 0.0,
        "weights": [
          -8.639566,
          -4.2463017,
          0.2462143,
          7.125846,
          -8.412601,
          -5.3871217,
          3.591254,
          6.3019214,
          -0.8290323,
          2.8442862
        ]
      },
      {
        "bias": -13.638502,
        "value": 0.0,
        "weights": [
          0.03382084,
          -0.6418685,
          0.21647954,
          5.10274,
          -1.4786948,
          1.4360142,
          6.1580524,
          -4.6409674,
          -4.4950294,
          3.1032515
        ]
      },
      {
        "bias": 50.834564,
        "value": 0.0,
        "weights": [
          7.394827,
          -3.4147398,
          -0.6472023,
          5.814821,
          2.96596,
          -0.60653216,
          -2.868933,
          -5.26382,
          -7.805127,
          -3.4203124
        ]
      },
      {
        "bias": 36.063118,
        "value": 0.0,
        "weights": [
          2.5378463,
          -0.43778396,
          -3.0148199,
          -1.5094273,
          -0.24120477,
          -0.019254163,
          -2.9860957,
          4.2179017,
          -1.5108402,
          2.8500733
        ]
      },
      {
        "bias": -20.175224,
        "value": 0.0,
        "weights": [
          -0.47691062,
          7.2607136,
          -4.3920913,
          -2.8706713,
          0.67773473,
          -3.9016957,
          2.1809566,
          -2.6621754,
          1.5466999,
          -3.119228
        ]
      },
      {
        "bias": 1.4568868,
        "value": 0.0,
        "weights": [
          4.115107,
          -0.026745714,
          7.9224668,
          0.79521304,
          3.5081537,
          -2.3259542,
          -1.2843462,
          1.0931909,
          -0.75172096,
          8.875541
        ]
      },
      {
        "bias": -39.206112,
        "value": 0.0,
        "weights": [
          -1.466253,
          -1.7135019,
          -0.68081397,
          -0.021905012,
          0.7743387,
          3.6402564,
          -2.4309335,
          0.347177,
          -2.9894142,
          -2.6102624
        ]
      },
      {
        "bias": 25.035894,
        "value": 0.0,
        "weights": [
          3.545841,
          0.37283868,
          -6.074768,
          0.7354545,
          -6.136607,
          1.8962492,
          3.440758,
          4.695082,
          -5.7541304,
          -0.31314325
        ]
      },
      {
        "bias": -15.066711,
        "value": 0.0,
        "weights": [
          0.107804835,
          4.544433,
          -5.199733,
          -1.4182194,
          -1.3481747,
          -5.207672,
          -6.6277366,
          1.3424503,
          -2.3371398,
          3.9949396
        ]
      }
    ],
    [
      {
        "bias": 3.1337872,
        "value": 0.0,
        "weights": [
          4.888815,
          0.8953025,
          4.604736,
          2.0324385,
          3.382455,
          -6.6695843,
          1.2599441,
          -0.050996438,
          -0.7760373,
          -2.0366359
        ]
      },
      {
        "bias": 5.6330633,
        "value": 0.0,
        "weights": [
          1.6361417,
          -1.8526717,
          5.09841,
          5.596495,
          7.797716,
          4.177066,
          -2.168911,
          -1.6548185,
          -3.4618955,
          -0.16728424
        ]
      },
      {
        "bias": -32.882122,
        "value": 0.0,
        "weights": [
          -5.808467,
          -0.083139785,
          0.7965626,
          7.6128993,
          -4.2336087,
          -3.103497,
          1.503838,
          1.1604241,
          0.89099365,
          5.1628914
        ]
      },
      {
        "bias": -12.9190235,
        "value": 0.0,
        "weights": [
          0.26531622,
          0.50569034,
          -0.16793725,
          0.97820663,
          -8.265235,
          1.6189909,
          1.9095281,
          0.38669923,
          0.7515698,
          -5.885938
        ]
      },
      {
        "bias": 6.60637,
        "value": 0.0,
        "weights": [
          1.8621379,
          -1.8613933,
          -1.535586,
          9.806525,
          -0.19403589,
          -1.714855,
          -1.5213227,
          4.125137,
          3.4867177,
          -0.7664806
        ]
      },
      {
        "bias": -14.752625,
        "value": 0.0,
        "weights": [
          -1.1146016,
          -3.1123314,
          -0.28512603,
          -8.113408,
          -0.72200227,
          -5.9230943,
          -7.5297465,
          4.6851335,
          -2.3730767,
          6.824702
        ]
      },
      {
        "bias": 51.538666,
        "value": 0.0,
        "weights": [
          -0.99402744,
          -3.300636,
          1.2884902,
          -1.3734932,
          0.31866643,
          -0.4549806,
          0.73849154,
          -4.462631,
          0.9774183,
          5.167304
        ]
      },
      {
        "bias": 9.62537,
        "value": 0.0,
        "weights": [
          -0.5600289,
          -0.9665112,
          -1.3713422,
          3.8901017,
          2.6432016,
          3.8647914,
          -0.82796055,
          0.33422297,
          -3.8345797,
          0.81872195
        ]
      },
      {
        "bias": -0.10931349,
        "value": 0.0,
        "weights": [
          0.6084456,
          -4.633415,
          -2.3832264,
          -4.912888,
          -1.8378013,
          -1.1493094,
          -3.1513753,
          3.3302014,
          -1.3497398,
          -2.0526671
        ]
      },
      {
        "bias": 5.271163,
        "value": 0.0,
        "weights": [
          -2.382091,
          5.9530625,
          2.276989,
          6.1407332,
          -0.43045157,
          0.27042535,
          -5.345688,
          0.6281616,
          3.1401868,
          -2.7638674
        ]
      }
    ]
  ],
  "output_nodes": [
    {
      "bias": 7.7833757,
      "value": 0.0,
      "weights": [
        -2.5599303,
        5.3930335,
        2.8836482,
        3.2408454,
        4.4038057,
        1.7010603,
        3.112292,
        -1.7727493,
        -2.314776,
        4.886331
      ]
    },
    {
      "bias": -0.9480982,
      "value": 0.0,
      "weights": [
        -0.055036947,
        1.0807974,
        -1.3061808,
        -1.2140683,
        -5.9175296,
        1.3432522,
        -6.6604757,
        1.4259735,
        0.3620477,
        -5.400705
      ]
    }
  ]
}