{
  "input_nodes": [
    {
      "bias": -128.43791,
      "value": 0.0
    },
    {
      "bias": -66.37863,
      "value": 0.0
    }
  ],
  "hidden_nodes": [
    [
      {
        "bias": 28.886606,
        "value": 0.0,
        "weights": [
          -7.656272,
          1.517405
        ]
      },
      {
        "bias": 34.34477,
        "value": 0.0,
        "weights": [
          -3.413939,
          -4.634219
        ]
      },
      {
        "bias": -24.671047,
        "value": 0.0,
        "weights": [
          2.3774652,
          -3.3542187
        ]
      },
      {
        "bias": 14.990855,
        "value": 0.0,
        "weights": [
          0.8799923,
          3.4460485
        ]
      },
      {
        "bias": 69.96024,
        "value": 0.0,
        "weights": [
          2.78332,
          4.520588
        ]
      },
      {
        "bias": 4.037159,
        "value": 0.0,
        "weights": [
          -1.168404,
          0.7280372
        ]
      },
      {
        "bias": 0.37250304,
        "value": 0.0,
        "weights": [
          -1.7383304,
          -3.5954878
        ]
      },
      {
        "bias": 65.814995,
        "value": 0.0,
        "weights": [
          -1.8776455,
          -1.2966841
        ]
      },
      {
        "bias": 16.201944,
        "value": 0.0,
        "weights": [
          -3.7025995,
          -0.79788065
        ]
      },
      {
        "bias": -58.108986,
        "value": 0.0,
        "weights": [
          -4.1005526,
          -4.351211
        ]
      }
    ],
    [
      {
        "bias": 73.79063,
        "value": 0.0,
        "weights": [
          -2.2246323,
          6.812405,
          2.9283307,
          1.7279853,
          3.410199,
          2.9291797,
          -1.0359062,
          -1.0868016,
          -1.0036664,
          -0.24418959
        ]
      },
      {
        "bias": 43.18687,
        "value": 0.0,
        "weights": [
          -1.6549804,
          2.6007874,
          1.9849356,
          1.95469,
          1.120044,
          -5.29997,
          2.8989463,
          -1.2888254,
          -6.2638636,
          2.5551386
        ]
      },
      {
        "bias": 41.93847,
        "value": 0.0,
        "weights": [
          -5.5257273,
          -1.5794784,
          -1.4114496,
          -2.2308915,
          -1.0796728,
          5.3654346,
          3.0518417,
          7.4978437,
          3.9689307,
          2.7114434
        ]
      },
      {
        "bias": -35.17192,
        "value": 0.0,
        "weights": [
          -0.9334768,
          -1.6070654,
          0.07558358,
          -0.7735198,
          0.45356178,
          -1.407537,
          3.6773849,
          1.6514977,
          7.8329606,
          2.6954515
        ]
      },
      {
        "bias": -64.20981,
        "value": 0.0,
        "weights": [
          -2.480392,
          -0.067103066,
          3.4201539,
          -1.8254031,
          0.16383487,
          1.266598,
          -3.066723,
          2.6273184,
          6.4289365,
          2.885071
        ]
      },
      {
        "bias": 45.29993,
        "value": 0.0,
        "weights": [
          -2.315433,
          -2.3335965,
          6.56337,
          2.571842,
          0.6416707,
          1.0633361,
          -4.154003,
          -1.8658118,
          -6.3996797,
          -0.022667617
        ]
      },
      {
        "bias": -5.9530535,
        "value": 0.0,
        "weights": [
          -1.4752829,
          -2.0437064,
          -1.2153012,
          -4.8759623,
          -4.8468385,
          -6.265726,
          -2.3019187,
          -1.8541651,
          2.231337,
          1.25002
        ]
      },
      {
        "bias": -53.497185,
        "value": 0.0,
        "weights": [
          -9.902336,
          -6.406863,
          3.7461693,
          -4.1361446,
          -2.039978,
          1.8049531,
          -0.7489526,
          0.81348634,
          4.669623,
          -1.5327624
        ]
      },
      {
        "bias": 21.888409,
        "value": 0.0,
        "weights": [
          1.3193758,
          -0.14029905,
          1.6084201,
          -7.06949,
          -2.2811027,
          -0.2697917,
          2.4650383,
          2.7632914,
          -0.098701626,
          3.2202454
        ]
      },
      {
        "bias": -12.69379,
        "value": 0.0,
        "weights": [
          -0.36296827,
          3.8522854,
          -1.9593835,
          2.6949263,
          3.3154314,
          -4.253342,
          -0.50244063,
          -0.76674503,
          0.5731406,
          -3.4065866
        ]
      }
    ],
    [
      {
        "bias": -37.35627,
        "value": 0.0,
        "weights": [
          3.3331804,
          -2.7429218,
          -2.8356862,
          4.843236,
          -0.3318844,
          -5.911755,
          -1.265678,
          -3.8556452,
          -1.932633,
          1.3373765
        ]
      },
      {
        "bias": -9.61512,
        "value": 0.0,
        "weights": [
          -8.923582,
          -3.5714939,
          -0.020822674,
          6.6828446,
          -8.115762,
          -5.224406,
          3.9485188,
          5.703787,
          -1.4164104,
          2.8253777
        ]
      },
      {
        "bias": -18.69356,
        "value": 0.0,
        "weights": [
          -0.5040637,
          -0.60182995,
          0.64749616,
          4.3190084,
          -1.1640135,
          1.8622738,
          6.043591,
          -4.964405,
          -4.8017497,
          3.2946846
        ]
      },
      {
        "bias": 48.345875,
        "value": 0.0,
        "weights": [
          6.9141316,
          -3.6438851,
          -1.0696663,
          6.255636,
          2.5782092,
          -0.2722343,
          -1.8067135,
          -4.9953523,
          -7.6330595,
          -3.5326169
        ]
      },
      {
        "bias": 35.46001,
        "value": 0.0,
        "weights": [
          2.8742812,
          -0.056665204,
          -3.0064378,
          -1.9396088,
          -0.1967893,
          0.84619826,
          -2.109017,
          3.5022933,
          -0.8472723,
          3.113181
        ]
      },
      {
        "bias": -27.081402,
        "value": 0.0,
        "weights": [
          -0.34176242,
          7.8308687,
          -4.094649,
          -2.1891658,
          0.51053154,
          -4.1760397,
          1.6581829,
          -2.6507206,
          0.977713,
          -4.173634
        ]
      },
      {
        "bias": -2.896859,
        "value": 0.0,
        "weights": [
          4.6113133,
          0.5703485,
          6.934795,
          0.36449218,
          3.499793,
          -1.7846873,
          -1.4201857,
          0.4668698,
          -0.21753606,
          9.00456
        ]
      },
      {
        "bias": -42.869488,
        "value": 0.0,
        "weights": [
          -0.5358118,
          -2.0420058,
          -0.6114274,
          0.023156874,
          1.4503847,
          3.1119845,
          -2.8725703,
          0.76499605,
          -3.0162902,
          -2.9798288
        ]
      },
      {
        "bias": 19.860863,
        "value": 0.0,
        "weights": [
          3.3998346,
          0.25864074,
          -5.9681096,
          1.0216317,
          -5.8282976,
          1.6422105,
          3.407703,
          4.9813643,
          -5.5960426,
          -0.6906792
        ]
      },
      {
        "bias": -20.210106,
        "value": 0.0,
        "weights": [
          -0.28494817,
          3.7853534,
          -5.1267056,
          -0.88581014,
          -1.7374281,
          -5.1629033,
          -6.1466494,
          1.9517452,
          -1.9647062,
          4.0273547
        ]
      }
    ],
    [
      {
        "bias": 6.967472,
        "value": 0.0,
        "weights": [
          5.407623,
          1.160053,
          5.0416865,
          2.5301275,
          3.681002,
          -6.6867857,
          1.8310585,
          0.0984458,
          -0.49855196,
          -1.9755137
        ]
      },
      {
        "bias": -1.3119142,
        "value": 0.0,
        "weights": [
          2.3078914,
          -2.4434156,
          6.593131,
          5.8563395,
          6.9541783,
          4.9313464,
          -2.267144,
          -1.6459866,
          -3.3196223,
          -0.4996378
        ]
      },
      {
        "bias": -44.67796,
        "value": 0.0,
        "weights": [
          -5.8579664,
          -0.37305826,
          0.4777239,
          7.1955066,
          -4.0069795,
          -3.3070977,
          1.1548796,
          1.2103062,
          0.89592683,
          4.74501
        ]
      },
      {
        "bias": -13.362518,
        "value": 0.0,
        "weights": [
          0.15651825,
          0.4271256,
          -1.1969755,
          1.4504591,
          -8.253561,
          2.4761312,
          2.7103703,
          0.6616442,
          0.743371,
          -5.4723477
        ]
      },
      {
        "bias": 7.0901155,
        "value": 0.0,
        "weights": [
          1.9453934,
          -1.7640128,
          -0.8164877,
          9.96453,
          -0.61868346,
          -1.6593949,
          -0.529448,
          4.4948454,
          3.572697,
          -0.011510588
        ]
      },
      {
        "bias": -17.71125,
        "value": 0.0,
        "weights": [
          -1.2332736,
          -3.2294054,
          -0.39520034,
          -8.098506,
          -0.66862524,
          -6.020225,
          -7.4643736,
          4.39692,
          -1.4498653,
          7.8109126
        ]
      },
      {
        "bias": 55.798195,
        "value": 0.0,
        "weights": [
          0.08005509,
          -3.3203506,
          1.2658945,
          -1.4143635,
          0.7503152,
          0.011288736,
          -0.24252357,
          -3.8336005,
          1.7963976,
          4.285739
        ]
      },
      {
        "bias": 9.381623,
        "value": 0.0,
        "weights": [
          -0.4349296,
          -0.8914374,
          -1.2295876,
          3.545644,
          1.8813404,
          4.875017,
          -0.28752252,
          0.8577662,
          -3.2196217,
          0.5808547
        ]
      },
      {
        "bias": 0.633898,
        "value": 0.0,
        "weights": [
          1.1089107,
          -4.239798,
          -2.3366864,
          -4.7573404,
          -1.594431,
          -1.406169,
          -4.0982556,
          3.171501,
          -1.1352473,
          -1.3079652
        ]
      },
      {
        "bias": -0.16987228,
        "value": 0.0,
        "weights": [
          -2.3246264,
          6.124712,
          1.4725125,
          6.5611224,
          -0.6141547,
          -0.32126537,
          -5.767004,
          0.77805805,
          3.7335484,
          -1.67334
        ]
      }
    ]
  ],
  "output_nodes": [
    {
      "bias": 10.888803,
      "value": 0.0,
      "weights": [
        -3.133677,
        5.4847856,
        2.1547947,
        3.5721571,
        4.5772104,
        1.5781529,
        2.7496643,
        -2.1740508,
        -2.6311684,
        4.2363973
      ]
    },
    {
      "bias": 4.5405445,
      "value": 0.0,
      "weights": [
        0.6949721,
        1.7319165,
        -1.1586581,
        -1.3415198,
        -5.7109437,
        1.2929574,
        -6.595587,
        0.48146924,
        -0.45557338,
        -5.457765
      ]
    }
  ]
}