{
  "input_nodes": [
    {
      "bias": -141.19437,
      "value": 0.0
    },
    {
      "bias": -69.388725,
      "value": 0.0
    }
  ],
  "hidden_nodes": [
    [
      {
        "bias": 27.769932,
        "value": 0.0,
        "weights": [
          -7.8546124,
          1.2397264
        ]
      },
      {
        "bias": 35.22332,
        "value": 0.0,
        "weights": [
          -3.2995462,
          -4.609498
        ]
      },
      {
        "bias": -22.846598,
        "value": 0.0,
        "weights": [
          2.4021337,
          -3.6032133
        ]
      },
      {
        "bias": 16.329216,
        "value": 0.0,
        "weights": [
          1.115396,
          3.5401886
        ]
      },
      {
        "bias": 70.336044,
        "value": 0.0,
        "weights": [
          2.8304665,
          4.4089293
        ]
      },
      {
        "bias": 3.2780237,
        "value": 0.0,
        "weights": [
          -1.0537422,
          0.9926758
        ]
      },
      {
        "bias": 1.1298704,
        "value": 0.0,
        "weights": [
          -1.7896589,
          -3.488829
        ]
      },
      {
        "bias": 64.04538,
        "value": 0.0,
        "weights": [
          -2.1492634,
          -1.480971
        ]
      },
      {
        "bias": 16.13909,
        "value": 0.0,
        "weights": [
          -3.41434,
          -0.61263967
        ]
      },
      {
        "bias": -56.413284,
        "value": 0.0,
        "weights": [
          -4.1015377,
          -4.59812
        ]
      }
    ],
    [
      {
        "bias": 71.749016,
        "value": 0.0,
        "weights": [
          -2.1476352,
          6.8958,
          2.9431424,
          1.7926875,
          3.335854,
          2.6798286,
          -1.2754879,
          -1.2412497,
          -0.8559555,
          0.020468593
        ]
      },
      {
        "bias": 41.12472,
        "value": 0.0,
        "weights": [
          -1.3780315,
          2.6826258,
          1.7079366,
          2.2775555,
          1.286951,
          -5.5478973,
          3.0988755,
          -1.2058263,
          -6.5476527,
          2.4474566
        ]
      },
      {
        "bias": 41.98932,
        "value": 0.0,
        "weights": [
          -5.533643,
          -1.5317788,
          -1.2217091,
          -2.1976397,
          -1.1457282,
          5.243922,
          3.0432467,
          7.4509625,
          3.6465244,
          2.3340037
        ]
      },
      {
        "bias": -33.90222,
        "value": 0.0,
        "weights": [
          -0.94157934,
          -1.4735192,
          -0.18424694,
          -0.71482646,
          0.28618246,
          -1.4232761,
          3.7834826,
          1.9085656,
          7.750709,
          2.6353729
        ]
      },
      {
        "bias": -62.137825,
        "value": 0.0,
        "weights": [
          -2.4945614,
          0.099264115,
          3.208653,
          -2.2111528,
          0.20444375,
          1.3901339,
          -3.3284287,
          2.6137018,
          6.375489,
          3.0255644
        ]
      },
      {
        "bias": 45.659016,
        "value": 0.0,
        "weights": [
          -2.0878859,
          -2.4072177,
          6.830203,
          2.4215343,
          0.6621135,
          0.7662642,
          -4.046219,
          -1.7371672,
          -6.449042,
          0.10236953
        ]
      },
      {
        "bias": -6.917776,
        "value": 0.0,
        "weights": [
          -1.7040972,
          -1.9289272,
          -0.8578598,
          -4.9069567,
          -4.850787,
          -6.270507,
          -2.011947,
          -1.6957246,
          2.0311818,
          1.4446377
        ]
      },
      {
        "bias": -53.432873,
        "value": 0.0,
        "weights": [
          -9.710493,
          -6.348898,
          3.5452118,
          -4.3322783,
          -2.2125974,
          1.9749501,
          -0.95917386,
          0.6589586,
          4.5380573,
          -1.4126487
        ]
      },
      {
        "bias": 23.301558,
        "value": 0.0,
        "weights": [
          1.0915635,
          -0.0037663504,
          1.5135775,
          -7.4555907,
          -2.620198,
          -0.068667926,
          2.4318242,
          2.7557824,
          -0.21425095,
          3.6344848
        ]
      },
      {
        "bias": -12.915665,
        "value": 0.0,
        "weights": [
          -0.4168508,
          4.0713935,
          -1.9795766,
          2.573476,
          3.608924,
          -4.3117495,
          -0.57585853,
          -0.90992975,
          0.6706468,
          -3.3007658
        ]
      }
    ],
    [
      {
        "bias": -36.371613,
        "value": 0.0,
        "weights": [
          3.6012268,
          -2.764718,
          -2.7672577,
          4.9437895,
          -0.13765445,
          -5.7849565,
          -1.3772701,
          -3.9021099,
          -1.9157915,
          1.2296644
        ]
      },
      {
        "bias": -11.953308,
        "value": 0.0,
        "weights": [
          -8.833386,
          -3.3798687,
          0.06288763,
          6.7051578,
          -8.542883,
          -5.030524,
          3.8627665,
          5.5277505,
          -1.1992614,
          2.9450126
        ]
      },
      {
        "bias": -18.4809,
        "value": 0.0,
        "weights": [
          -0.5047591,
          -0.84947264,
          1.0102488,
          4.4119854,
          -0.9890793,
          1.7509809,
          5.858535,
          -4.7861004,
          -4.824355,
          3.6301441
        ]
      },
      {
        "bias": 49.84247,
        "value": 0.0,
        "weights": [
          7.0005116,
          -3.5150692,
          -1.0053254,
          6.1532125,
          2.3736756,
          -0.35358086,
          -1.5386932,
          -5.2346516,
          -7.601689,
          -3.3708875
        ]
      },
      {
        "bias": 37.413754,
        "value": 0.0,
        "weights": [
          2.7780893,
          0.14515047,
          -2.9213388,
          -1.9653931,
          -0.12705511,
          0.74019086,
          -2.220333,
          3.4659302,
          -0.9025564,
          3.1425066
        ]
      },
      {
        "bias": -25.699142,
        "value": 0.0,
        "weights": [
          -0.36363307,
          7.6257105,
          -4.215417,
          -2.094272,
          0.5546542,
          -3.903416,
          2.00167,
          -2.4854255,
          0.7087868,
          -3.8619719
        ]
      },
      {
        "bias": -2.7738202,
        "value": 0.0,
        "weights": [
          4.5641947,
          0.37182653,
          7.077088,
          0.31144547,
          3.4536872,
          -1.7547733,
          -1.1647476,
          0.5421169,
          -0.137009,
          8.869926
        ]
      },
      {
        "bias": -43.28388,
        "value": 0.0,
        "weights": [
          -0.5611592,
          -2.0841696,
          -0.5191378,
          0.013105661,
          1.5472459,
          3.0494163,
          -2.8401413,
          0.78217286,
          -2.8174615,
          -2.8607166
        ]
      },
      {
        "bias": 17.609417,
        "value": 0.0,
        "weights": [
          3.3705032,
          0.2866198,
          -5.7662196,
          1.0284015,
          -5.8983955,
          1.7318419,
          3.5911222,
          4.8476157,
          -5.8246326,
          -0.6714347
        ]
      },
      {
        "bias": -16.883242,
        "value": 0.0,
        "weights": [
          -0.32035798,
          4.1472726,
          -5.270587,
          -1.0384948,
          -1.7482027,
          -4.97201,
          -6.146992,
          1.8496213,
          -2.3095105,
          3.871073
        ]
      }
    ],
    [
      {
        "bias": 8.9176445,
        "value": 0.0,
        "weights": [
          5.159976,
          1.1299686,
          5.185767,
          2.3758192,
          3.3916657,
          -6.497345,
          2.0817266,
          -0.1827299,
          -0.7598526,
          -2.0064313
        ]
      },
      {
        "bias": -0.74267673,
        "value": 0.0,
        "weights": [
          2.2505429,
          -2.496929,
          6.5006933,
          5.583472,
          7.197453,
          5.009172,
          -2.3055313,
          -1.6797985,
          -3.1630626,
          -0.6422872
        ]
      },
      {
        "bias": -47.425644,
        "value": 0.0,
        "weights": [
          -5.9767933,
          -0.2572673,
          0.42696714,
          6.8879128,
          -4.15639,
          -3.2760327,
          1.1496007,
          0.80430883,
          0.8120754,
          4.789189
        ]
      },
      {
        "bias": -9.983553,
        "value": 0.0,
        "weights": [
          -0.12961695,
          0.5082758,
          -1.2511804,
          1.11892,
          -7.998761,
          2.4336517,
          2.6491547,
          0.6280669,
          0.62724036,
          -5.592673
        ]
      },
      {
        "bias": 5.2965918,
        "value": 0.0,
        "weights": [
          2.087548,
          -1.7468873,
          -0.82371753,
          9.649134,
          -0.52086514,
          -1.6168777,
          -0.86684406,
          4.368954,
          3.542363,
          0.05808755
        ]
      },
      {
        "bias": -19.476366,
        "value": 0.0,
        "weights": [
          -1.5211955,
          -3.1780217,
          -0.43249226,
          -8.101215,
          -0.51132816,
          -5.9813657,
          -7.778218,
          4.518361,
          -1.6101369,
          7.7393045
        ]
      },
      {
        "bias": 56.245018,
        "value": 0.0,
        "weights": [
          -0.2235392,
          -3.398907,
          1.3585098,
          -1.3720453,
          0.7979887,
          -0.17563874,
          -0.23233534,
          -3.7367887,
          1.7305342,
          4.2976255
        ]
      },
      {
        "bias": 9.589858,
        "value": 0.0,
        "weights": [
          -0.42885697,
          -0.9332321,
          -1.3064252,
          3.3488941,
          2.053737,
          4.8769164,
          -0.3472395,
          0.87729746,
          -3.314956,
          0.7246819
        ]
      },
      {
        "bias": 2.8013973,
        "value": 0.0,
        "weights": [
          1.1059791,
          -4.430334,
          -2.1134398,
          -4.658296,
          -1.8277819,
          -1.5915419,
          -3.7291503,
          3.2842581,
          -1.1891404,
          -1.6765509
        ]
      },
      {
        "bias": 2.6691012,
        "value": 0.0,
        "weights": [
          -2.2244759,
          6.0628076,
          1.3892725,
          6.3064475,
          -0.5338243,
          -0.48582938,
          -6.0153913,
          1.0097421,
          3.6990647,
          -1.822616
        ]
      }
    ]
  ],
  "output_nodes": [
    {
      "bias": 11.870605,
      "value": 0.0,
      "weights": [
        -2.9172034,
        5.5561194,
        2.5891287,
        3.5859053,
        4.331932,
        1.5670284,
        2.8827853,
        -2.1453412,
        -2.5438879,
        4.2781734
      ]
    },
    {
      "bias": 5.1343946,
      "value": 0.0,
      "weights": [
        0.71993136,
        1.683621,
        -1.0172038,
        -1.309379,
        -5.8745747,
        1.5320988,
        -6.563025,
        0.9307252,
        -0.3226204,
        -5.6185484
      ]
    }
  ]
}